<?xml version="1.0"?>
<opencv_storage>
<cascade>
  <stageType>BOOST</stageType>
  <featureType>HAAR</featureType>
  <height>100</height>
  <width>50</width>
  <stageParams>
    <boostType>GAB</boostType>
    <minHitRate>9.9500000476837158e-01</minHitRate>
    <maxFalseAlarm>5.0000000000000000e-01</maxFalseAlarm>
    <weightTrimRate>9.4999998807907104e-01</weightTrimRate>
    <maxDepth>1</maxDepth>
    <maxWeakCount>100</maxWeakCount></stageParams>
  <featureParams>
    <maxCatCount>0</maxCatCount>
    <featSize>1</featSize>
    <mode>BASIC</mode></featureParams>
  <stageNum>4</stageNum>
  <stages>
    <!-- stage 0 -->
    <_>
      <maxWeakCount>3</maxWeakCount>
      <stageThreshold>-1.4189330339431763e+00</stageThreshold>
      <weakClassifiers>
        <_>
          <internalNodes>
            0 -1 4 -5.9641681611537933e-02</internalNodes>
          <leafValues>
            5.2830189466476440e-01 -9.9239087104797363e-01</leafValues></_>
        <_>
          <internalNodes>
            0 -1 12 2.8762720525264740e-02</internalNodes>
          <leafValues>
            -9.7027331590652466e-01 5.3450274467468262e-01</leafValues></_>
        <_>
          <internalNodes>
            0 -1 3 -9.4091594219207764e-02</internalNodes>
          <leafValues>
            5.7582163810729980e-01 -9.6104490756988525e-01</leafValues></_></weakClassifiers></_>
    <!-- stage 1 -->
    <_>
      <maxWeakCount>4</maxWeakCount>
      <stageThreshold>-2.3524816036224365e+00</stageThreshold>
      <weakClassifiers>
        <_>
          <internalNodes>
            0 -1 8 4.0567629039287567e-03</internalNodes>
          <leafValues>
            -9.8715889453887939e-01 1.7241379618644714e-01</leafValues></_>
        <_>
          <internalNodes>
            0 -1 1 -2.6500679552555084e-02</internalNodes>
          <leafValues>
            3.6847513914108276e-01 -9.5489203929901123e-01</leafValues></_>
        <_>
          <internalNodes>
            0 -1 5 -5.3511559963226318e-03</internalNodes>
          <leafValues>
            4.7690832614898682e-01 -9.0628993511199951e-01</leafValues></_>
        <_>
          <internalNodes>
            0 -1 7 -2.2727940231561661e-02</internalNodes>
          <leafValues>
            4.9964466691017151e-01 -8.2750785350799561e-01</leafValues></_></weakClassifiers></_>
    <!-- stage 2 -->
    <_>
      <maxWeakCount>4</maxWeakCount>
      <stageThreshold>-2.4864857196807861e+00</stageThreshold>
      <weakClassifiers>
        <_>
          <internalNodes>
            0 -1 9 -3.7602758966386318e-03</internalNodes>
          <leafValues>
            2.1348313987255096e-01 -9.8164039850234985e-01</leafValues></_>
        <_>
          <internalNodes>
            0 -1 2 -4.0251500904560089e-02</internalNodes>
          <leafValues>
            1.2104382365942001e-01 -9.3359935283660889e-01</leafValues></_>
        <_>
          <internalNodes>
            0 -1 11 -5.6509487330913544e-04</internalNodes>
          <leafValues>
            2.4525564908981323e-01 -9.1607594490051270e-01</leafValues></_>
        <_>
          <internalNodes>
            0 -1 0 -2.7904508169740438e-04</internalNodes>
          <leafValues>
            -9.7878557443618774e-01 3.4483000636100769e-01</leafValues></_></weakClassifiers></_>
    <!-- stage 3 -->
    <_>
      <maxWeakCount>3</maxWeakCount>
      <stageThreshold>-1.8968275785446167e+00</stageThreshold>
      <weakClassifiers>
        <_>
          <internalNodes>
            0 -1 10 4.2771296575665474e-03</internalNodes>
          <leafValues>
            -9.7427779436111450e-01 5.2173912525177002e-01</leafValues></_>
        <_>
          <internalNodes>
            0 -1 0 2.1014515368733555e-05</internalNodes>
          <leafValues>
            -2.6743905618786812e-02 -9.9688977003097534e-01</leafValues></_>
        <_>
          <internalNodes>
            0 -1 6 1.5667174011468887e-03</internalNodes>
          <leafValues>
            -8.9580595493316650e-01 2.3068358004093170e-01</leafValues></_></weakClassifiers></_></stages>
  <features>
    <_>
      <rects>
        <_>
          0 0 1 78 -1.</_>
        <_>
          0 39 1 39 2.</_></rects>
      <tilted>0</tilted></_>
    <_>
      <rects>
        <_>
          0 37 6 61 -1.</_>
        <_>
          3 37 3 61 2.</_></rects>
      <tilted>0</tilted></_>
    <_>
      <rects>
        <_>
          1 5 48 3 -1.</_>
        <_>
          17 5 16 3 3.</_></rects>
      <tilted>0</tilted></_>
    <_>
      <rects>
        <_>
          2 2 45 15 -1.</_>
        <_>
          17 2 15 15 3.</_></rects>
      <tilted>0</tilted></_>
    <_>
      <rects>
        <_>
          2 3 45 6 -1.</_>
        <_>
          17 3 15 6 3.</_></rects>
      <tilted>0</tilted></_>
    <_>
      <rects>
        <_>
          4 94 42 6 -1.</_>
        <_>
          4 96 42 2 3.</_></rects>
      <tilted>0</tilted></_>
    <_>
      <rects>
        <_>
          4 96 8 4 -1.</_>
        <_>
          4 98 8 2 2.</_></rects>
      <tilted>0</tilted></_>
    <_>
      <rects>
        <_>
          5 21 14 28 -1.</_>
        <_>
          5 35 14 14 2.</_></rects>
      <tilted>0</tilted></_>
    <_>
      <rects>
        <_>
          5 98 41 2 -1.</_>
        <_>
          5 99 41 1 2.</_></rects>
      <tilted>0</tilted></_>
    <_>
      <rects>
        <_>
          15 0 20 2 -1.</_>
        <_>
          15 1 20 1 2.</_></rects>
      <tilted>0</tilted></_>
    <_>
      <rects>
        <_>
          20 0 24 2 -1.</_>
        <_>
          20 0 12 1 2.</_>
        <_>
          32 1 12 1 2.</_></rects>
      <tilted>0</tilted></_>
    <_>
      <rects>
        <_>
          29 0 6 4 -1.</_>
        <_>
          29 2 6 2 2.</_></rects>
      <tilted>0</tilted></_>
    <_>
      <rects>
        <_>
          44 39 6 57 -1.</_>
        <_>
          47 39 3 57 2.</_></rects>
      <tilted>0</tilted></_></features></cascade>
</opencv_storage>
